def score(input):
    if input[0] <= 31.704999923706055:
        if input[2] <= 17.586000442504883:
            if input[1] <= 79.86000061035156:
                if input[2] <= 14.273999691009521:
                    if input[2] <= 12.473999977111816:
                        var0 = 3.4899999999999998
                    else:
                        var0 = 4.053401098901099
                else:
                    if input[0] <= 29.199999809265137:
                        var0 = 4.361958498023716
                    else:
                        var0 = 4.777652272727274
            else:
                if input[2] <= 13.697999954223633:
                    if input[2] <= 11.214000225067139:
                        var0 = 2.4812772277227717
                    else:
                        var0 = 3.076764331210192
                else:
                    if input[2] <= 16.145999908447266:
                        var0 = 3.546903726708074
                    else:
                        var0 = 3.9482027334851932
        else:
            if input[0] <= 28.994999885559082:
                if input[2] <= 20.25:
                    if input[1] <= 80.95000076293945:
                        var0 = 4.739277777777773
                    else:
                        var0 = 4.265391304347825
                else:
                    if input[0] <= 27.18000030517578:
                        var0 = 4.854538922155689
                    else:
                        var0 = 5.295162500000001
            else:
                if input[2] <= 20.753999710083008:
                    if input[1] <= 72.76499938964844:
                        var0 = 5.52979069767442
                    else:
                        var0 = 5.057245989304811
                else:
                    if input[1] <= 60.295000076293945:
                        var0 = 6.496972067039105
                    else:
                        var0 = 5.875435643564354
    else:
        if input[1] <= 47.10499954223633:
            if input[2] <= 24.10200023651123:
                if input[0] <= 36.71500015258789:
                    if input[2] <= 23.166000366210938:
                        var0 = 7.481381974248926
                    else:
                        var0 = 8.044924418604653
                else:
                    if input[1] <= 40.1299991607666:
                        var0 = 8.734560283687948
                    else:
                        var0 = 8.093328767123285
            else:
                if input[1] <= 38.56999969482422:
                    if input[2] <= 25.61400032043457:
                        var0 = 9.116890756302524
                    else:
                        var0 = 9.665976190476195
                else:
                    if input[0] <= 37.06500053405762:
                        var0 = 8.371671999999998
                    else:
                        var0 = 9.147083333333335
        else:
            if input[2] <= 21.833999633789062:
                if input[2] <= 18.935999870300293:
                    if input[1] <= 58.72500038146973:
                        var0 = 6.005140350877193
                    else:
                        var0 = 5.367919191919191
                else:
                    if input[1] <= 55.66499900817871:
                        var0 = 6.6431780821917785
                    else:
                        var0 = 6.079169354838709
            else:
                if input[0] <= 33.78499984741211:
                    if input[1] <= 62.39500045776367:
                        var0 = 7.070074218750002
                    else:
                        var0 = 6.584209737827715
                else:
                    if input[0] <= 35.73500061035156:
                        var0 = 7.427618266978921
                    else:
                        var0 = 8.20280891719745
    if input[0] <= 31.72499942779541:
        if input[2] <= 17.90999984741211:
            if input[1] <= 79.86999893188477:
                if input[2] <= 14.849999904632568:
                    if input[2] <= 12.654000282287598:
                        var1 = 3.5477777777777786
                    else:
                        var1 = 4.072441048034933
                else:
                    if input[1] <= 75.17499923706055:
                        var1 = 4.8794298245614005
                    else:
                        var1 = 4.39930895795247
            else:
                if input[2] <= 13.337999820709229:
                    if input[2] <= 10.872000217437744:
                        var1 = 2.372893048128341
                    else:
                        var1 = 3.032888489208634
                else:
                    if input[2] <= 16.145999908447266:
                        var1 = 3.5231362940275646
                    else:
                        var1 = 3.992716027874563
        else:
            if input[0] <= 29.035000801086426:
                if input[2] <= 21.149999618530273:
                    if input[1] <= 78.72500228881836:
                        var1 = 4.902088461538464
                    else:
                        var1 = 4.418002214839422
                else:
                    if input[0] <= 27.15999984741211:
                        var1 = 4.974911602209945
                    else:
                        var1 = 5.3766133333333315
            else:
                if input[2] <= 20.826000213623047:
                    if input[1] <= 60.935001373291016:
                        var1 = 5.939699029126214
                    else:
                        var1 = 5.299826546003015
                else:
                    if input[1] <= 59.439998626708984:
                        var1 = 6.5305964912280725
                    else:
                        var1 = 5.881066343042075
    else:
        if input[1] <= 47.114999771118164:
            if input[2] <= 24.10200023651123:
                if input[1] <= 40.1299991607666:
                    if input[2] <= 21.203999519348145:
                        var1 = 7.634927272727273
                    else:
                        var1 = 8.349141891891897
                else:
                    if input[0] <= 36.994998931884766:
                        var1 = 7.492956834532371
                    else:
                        var1 = 8.349543478260868
            else:
                if input[0] <= 37.33500099182129:
                    if input[1] <= 35.185001373291016:
                        var1 = 9.289612244897961
                    else:
                        var1 = 8.511775132275131
                else:
                    if input[2] <= 26.26200008392334:
                        var1 = 9.270213114754094
                    else:
                        var1 = 9.758549549549548
        else:
            if input[2] <= 21.941999435424805:
                if input[2] <= 18.989999771118164:
                    if input[1] <= 62.334999084472656:
                        var1 = 5.766767441860466
                    else:
                        var1 = 5.318276315789472
                else:
                    if input[1] <= 56.53499984741211:
                        var1 = 6.671550335570468
                    else:
                        var1 = 6.081245689655172
            else:
                if input[0] <= 34.89999961853027:
                    if input[0] <= 32.864999771118164:
                        var1 = 6.688305732484077
                    else:
                        var1 = 7.181033039647579
                else:
                    if input[2] <= 24.857999801635742:
                        var1 = 7.481418848167542
                    else:
                        var1 = 8.109962500000002
    if input[0] <= 31.734999656677246:
        if input[2] <= 17.369999885559082:
            if input[1] <= 80.54499816894531:
                if input[2] <= 14.058000087738037:
                    if input[2] <= 12.150000095367432:
                        var2 = 3.3736111111111113
                    else:
                        var2 = 3.9657692307692303
                else:
                    if input[1] <= 76.14500045776367:
                        var2 = 4.701646694214878
                    else:
                        var2 = 4.245289411764707
            else:
                if input[2] <= 13.049999713897705:
                    if input[2] <= 9.881999969482422:
                        var2 = 2.178333333333333
                    else:
                        var2 = 2.8497236024844725
                else:
                    if input[2] <= 15.461999893188477:
                        var2 = 3.3885792951541864
                    else:
                        var2 = 3.8316352087114343
        else:
            if input[0] <= 29.050000190734863:
                if input[2] <= 20.645999908447266:
                    if input[1] <= 78.95499801635742:
                        var2 = 4.853042662116046
                    else:
                        var2 = 4.321430196483975
                else:
                    if input[0] <= 27.15999984741211:
                        var2 = 4.911442148760333
                    else:
                        var2 = 5.342143176733782
            else:
                if input[2] <= 20.789999961853027:
                    if input[1] <= 61.73499870300293:
                        var2 = 5.838526315789472
                    else:
                        var2 = 5.221664197530861
                else:
                    if input[1] <= 60.869998931884766:
                        var2 = 6.566945544554457
                    else:
                        var2 = 5.918396933560476
    else:
        if input[1] <= 46.915000915527344:
            if input[2] <= 23.88599967956543:
                if input[0] <= 36.06500053405762:
                    if input[2] <= 22.878000259399414:
                        var2 = 7.250810126582279
                    else:
                        var2 = 7.958016666666664
                else:
                    if input[2] <= 22.175999641418457:
                        var2 = 7.884905263157893
                    else:
                        var2 = 8.449936170212768
            else:
                if input[0] <= 38.05500030517578:
                    if input[1] <= 38.80500030517578:
                        var2 = 9.084629370629374
                    else:
                        var2 = 8.572134285714291
                else:
                    if input[2] <= 26.26200008392334:
                        var2 = 9.335827586206893
                    else:
                        var2 = 9.787675324675323
        else:
            if input[2] <= 22.194000244140625:
                if input[2] <= 18.845999717712402:
                    if input[1] <= 60.69499969482422:
                        var2 = 5.864246376811597
                    else:
                        var2 = 5.314265822784809
                else:
                    if input[0] <= 34.204999923706055:
                        var2 = 6.218250659630605
                    else:
                        var2 = 6.906420560747664
            else:
                if input[0] <= 33.84499931335449:
                    if input[1] <= 63.029998779296875:
                        var2 = 7.138645569620254
                    else:
                        var2 = 6.640533039647582
                else:
                    if input[0] <= 36.3650016784668:
                        var2 = 7.5294401709401795
                    else:
                        var2 = 8.448370786516854
    if input[0] <= 31.72499942779541:
        if input[2] <= 17.29800033569336:
            if input[1] <= 80.48500061035156:
                if input[2] <= 14.849999904632568:
                    if input[1] <= 74.79999923706055:
                        var3 = 4.270747899159663
                    else:
                        var3 = 3.741041825095057
                else:
                    if input[1] <= 76.10499954223633:
                        var3 = 4.76877049180328
                    else:
                        var3 = 4.303801546391752
            else:
                if input[2] <= 13.230000019073486:
                    if input[2] <= 10.872000217437744:
                        var3 = 2.4049395973154364
                    else:
                        var3 = 2.9770499999999998
                else:
                    if input[2] <= 15.894000053405762:
                        var3 = 3.4685152487961486
                    else:
                        var3 = 3.8670025380710653
        else:
            if input[0] <= 29.035000801086426:
                if input[2] <= 20.21399974822998:
                    if input[1] <= 80.22000122070312:
                        var3 = 4.746821150855365
                    else:
                        var3 = 4.243637499999999
                else:
                    if input[0] <= 27.139999389648438:
                        var3 = 4.805378917378917
                    else:
                        var3 = 5.268601336302897
            else:
                if input[2] <= 20.753999710083008:
                    if input[1] <= 74.42000198364258:
                        var3 = 5.448796783625736
                    else:
                        var3 = 4.912872413793102
                else:
                    if input[1] <= 60.41499900817871:
                        var3 = 6.535653631284915
                    else:
                        var3 = 5.903750841750844
    else:
        if input[1] <= 46.80500030517578:
            if input[2] <= 24.10200023651123:
                if input[1] <= 36.31500053405762:
                    if input[0] <= 37.130001068115234:
                        var3 = 8.298040404040405
                    else:
                        var3 = 8.871036585365852
                else:
                    if input[0] <= 35.80000114440918:
                        var3 = 7.465939252336452
                    else:
                        var3 = 8.085067632850238
            else:
                if input[1] <= 38.56999969482422:
                    if input[2] <= 25.866000175476074:
                        var3 = 9.099030303030306
                    else:
                        var3 = 9.704744525547445
                else:
                    if input[0] <= 37.94499969482422:
                        var3 = 8.575947882736159
                    else:
                        var3 = 9.404915254237288
        else:
            if input[2] <= 22.625999450683594:
                if input[2] <= 20.538000106811523:
                    if input[2] <= 16.829999923706055:
                        var3 = 5.074249999999999
                    else:
                        var3 = 6.038095238095238
                else:
                    if input[1] <= 55.72500038146973:
                        var3 = 6.935177884615385
                    else:
                        var3 = 6.317316062176169
            else:
                if input[0] <= 34.10499954223633:
                    if input[1] <= 64.23999786376953:
                        var3 = 7.148435424354244
                    else:
                        var3 = 6.6725469613259705
                else:
                    if input[2] <= 24.857999801635742:
                        var3 = 7.468213973799125
                    else:
                        var3 = 8.082350597609564
    if input[0] <= 31.9350004196167:
        if input[2] <= 18.161999702453613:
            if input[1] <= 79.75:
                if input[2] <= 14.99399995803833:
                    if input[2] <= 12.131999969482422:
                        var4 = 3.4232916666666666
                    else:
                        var4 = 4.146400641025642
                else:
                    if input[1] <= 75.47500228881836:
                        var4 = 4.894438848920864
                    else:
                        var4 = 4.441441121495325
            else:
                if input[2] <= 13.733999729156494:
                    if input[2] <= 10.872000217437744:
                        var4 = 2.3867880794701994
                    else:
                        var4 = 3.0360431266846377
                else:
                    if input[2] <= 15.894000053405762:
                        var4 = 3.526388560157789
                    else:
                        var4 = 3.9582561307901902
        else:
            if input[0] <= 29.005000114440918:
                if input[2] <= 20.718000411987305:
                    if input[1] <= 79.49499893188477:
                        var4 = 4.860496881496882
                    else:
                        var4 = 4.374824034334765
                else:
                    if input[0] <= 27.460000038146973:
                        var4 = 4.945568690095847
                    else:
                        var4 = 5.369959866220734
            else:
                if input[2] <= 20.97000026702881:
                    if input[1] <= 61.7549991607666:
                        var4 = 5.93398125
                    else:
                        var4 = 5.3231434659090935
                else:
                    if input[1] <= 60.86000061035156:
                        var4 = 6.563583333333333
                    else:
                        var4 = 5.970619964973725
    else:
        if input[1] <= 47.13999938964844:
            if input[2] <= 23.993999481201172:
                if input[0] <= 36.07000160217285:
                    if input[2] <= 22.878000259399414:
                        var4 = 7.355451219512197
                    else:
                        var4 = 7.940386363636363
                else:
                    if input[1] <= 40.73000144958496:
                        var4 = 8.5121170212766
                    else:
                        var4 = 7.9495625000000025
            else:
                if input[0] <= 37.28499984741211:
                    if input[1] <= 36.48499870300293:
                        var4 = 9.176471264367821
                    else:
                        var4 = 8.508622535211268
                else:
                    if input[1] <= 34.85999870300293:
                        var4 = 9.720587155963301
                    else:
                        var4 = 9.240584070796459
        else:
            if input[2] <= 22.194000244140625:
                if input[2] <= 19.097999572753906:
                    if input[1] <= 61.07499885559082:
                        var4 = 5.94020895522388
                    else:
                        var4 = 5.3612413793103455
                else:
                    if input[0] <= 33.72500038146973:
                        var4 = 6.278676056338024
                    else:
                        var4 = 6.891000000000001
            else:
                if input[0] <= 34.78499984741211:
                    if input[1] <= 57.44000053405762:
                        var4 = 7.347489082969434
                    else:
                        var4 = 6.857257790368274
                else:
                    if input[0] <= 36.01499938964844:
                        var4 = 7.615333333333334
                    else:
                        var4 = 8.212408000000002
    if input[0] <= 31.40499973297119:
        if input[2] <= 17.694000244140625:
            if input[1] <= 80.95999908447266:
                if input[2] <= 14.058000087738037:
                    if input[2] <= 12.00600004196167:
                        var5 = 3.374952380952383
                    else:
                        var5 = 3.9009670329670323
                else:
                    if input[1] <= 75.29499816894531:
                        var5 = 4.709790393013101
                    else:
                        var5 = 4.289363076923079
            else:
                if input[2] <= 13.193999767303467:
                    if input[2] <= 10.889999866485596:
                        var5 = 2.362629870129869
                    else:
                        var5 = 2.9472645739910313
                else:
                    if input[2] <= 15.894000053405762:
                        var5 = 3.43586574870912
                    else:
                        var5 = 3.87204761904762
        else:
            if input[0] <= 28.675000190734863:
                if input[2] <= 20.28600025177002:
                    if input[1] <= 80.22000122070312:
                        var5 = 4.742915217391302
                    else:
                        var5 = 4.285465793304223
                else:
                    if input[2] <= 22.44600009918213:
                        var5 = 4.937047131147541
                    else:
                        var5 = 5.387783783783786
            else:
                if input[2] <= 20.89799976348877:
                    if input[1] <= 61.73499870300293:
                        var5 = 5.920605263157896
                    else:
                        var5 = 5.1951290697674395
                else:
                    if input[1] <= 60.165000915527344:
                        var5 = 6.485093023255814
                    else:
                        var5 = 5.834374367622259
    else:
        if input[1] <= 46.80500030517578:
            if input[2] <= 24.642000198364258:
                if input[1] <= 41.0049991607666:
                    if input[2] <= 21.383999824523926:
                        var5 = 7.670807017543858
                    else:
                        var5 = 8.472544757033251
                else:
                    if input[0] <= 36.60499954223633:
                        var5 = 7.465243027888449
                    else:
                        var5 = 8.186054347826088
            else:
                if input[0] <= 37.43499946594238:
                    if input[1] <= 37.06500053405762:
                        var5 = 9.290589928057559
                    else:
                        var5 = 8.657594262295081
                else:
                    if input[2] <= 25.793999671936035:
                        var5 = 9.169663636363637
                    else:
                        var5 = 9.672493150684929
        else:
            if input[2] <= 21.473999977111816:
                if input[2] <= 18.197999954223633:
                    if input[1] <= 58.72500038146973:
                        var5 = 5.855022727272728
                    else:
                        var5 = 5.215382978723405
                else:
                    if input[0] <= 33.614999771118164:
                        var5 = 6.014755485893417
                    else:
                        var5 = 6.713426086956525
            else:
                if input[0] <= 34.19499969482422:
                    if input[1] <= 63.095001220703125:
                        var5 = 7.01104872881356
                    else:
                        var5 = 6.524250000000003
                else:
                    if input[2] <= 24.75:
                        var5 = 7.384739682539683
                    else:
                        var5 = 8.044802469135801
    if input[0] <= 31.704999923706055:
        if input[2] <= 17.90999984741211:
            if input[1] <= 80.06499862670898:
                if input[2] <= 14.202000141143799:
                    if input[2] <= 11.861999988555908:
                        var6 = 3.328114754098361
                    else:
                        var6 = 3.9340887573964505
                else:
                    if input[0] <= 29.22499942779541:
                        var6 = 4.369245644599304
                    else:
                        var6 = 4.814427419354838
            else:
                if input[2] <= 13.230000019073486:
                    if input[2] <= 10.45799970626831:
                        var6 = 2.305303225806452
                    else:
                        var6 = 2.936803858520901
                else:
                    if input[2] <= 15.929999828338623:
                        var6 = 3.493565084226647
                    else:
                        var6 = 3.9354068857590003
        else:
            if input[0] <= 28.90499973297119:
                if input[2] <= 20.39400005340576:
                    if input[1] <= 80.22500228881836:
                        var6 = 4.773124472573839
                    else:
                        var6 = 4.323371382636657
                else:
                    if input[0] <= 27.204999923706055:
                        var6 = 4.84101098901099
                    else:
                        var6 = 5.259570707070706
            else:
                if input[2] <= 21.11400032043457:
                    if input[1] <= 61.7549991607666:
                        var6 = 5.987013986013985
                    else:
                        var6 = 5.273383211678831
                else:
                    if input[1] <= 59.46999931335449:
                        var6 = 6.613193103448275
                    else:
                        var6 = 5.956758260869569
    else:
        if input[1] <= 46.80500030517578:
            if input[2] <= 24.10200023651123:
                if input[1] <= 39.82500076293945:
                    if input[2] <= 22.40999984741211:
                        var6 = 7.997178947368421
                    else:
                        var6 = 8.618821739130434
                else:
                    if input[0] <= 35.42999839782715:
                        var6 = 7.36054748603352
                    else:
                        var6 = 8.027653594771245
            else:
                if input[0] <= 37.43499946594238:
                    if input[1] <= 38.80999946594238:
                        var6 = 9.10710798122066
                    else:
                        var6 = 8.466439716312056
                else:
                    if input[2] <= 25.866000175476074:
                        var6 = 9.118543307086616
                    else:
                        var6 = 9.695867088607592
        else:
            if input[2] <= 22.121999740600586:
                if input[2] <= 18.989999771118164:
                    if input[1] <= 61.53500175476074:
                        var6 = 5.819011627906977
                    else:
                        var6 = 5.282320987654319
                else:
                    if input[1] <= 56.494998931884766:
                        var6 = 6.729127551020407
                    else:
                        var6 = 6.1219931034482755
            else:
                if input[0] <= 34.80000114440918:
                    if input[1] <= 58.03499984741211:
                        var6 = 7.26960344827586
                    else:
                        var6 = 6.772129577464789
                else:
                    if input[2] <= 25.722000122070312:
                        var6 = 7.66251342281879
                    else:
                        var6 = 8.462693181818178
    if input[0] <= 31.664999961853027:
        if input[2] <= 18.378000259399414:
            if input[1] <= 79.65500259399414:
                if input[2] <= 15.318000316619873:
                    if input[2] <= 12.527999877929688:
                        var7 = 3.5395624999999993
                    else:
                        var7 = 4.201963060686016
                else:
                    if input[1] <= 75.61499786376953:
                        var7 = 4.931888682745825
                    else:
                        var7 = 4.509740174672487
            else:
                if input[2] <= 14.813999652862549:
                    if input[2] <= 12.401999950408936:
                        var7 = 2.6168888888888877
                    else:
                        var7 = 3.2787521739130443
                else:
                    if input[1] <= 83.00500106811523:
                        var7 = 4.124364303178487
                    else:
                        var7 = 3.76455090655509
        else:
            if input[0] <= 29.035000801086426:
                if input[2] <= 20.826000213623047:
                    if input[1] <= 79.625:
                        var7 = 4.889897029702971
                    else:
                        var7 = 4.416086460032622
                else:
                    if input[0] <= 27.175000190734863:
                        var7 = 4.923580357142854
                    else:
                        var7 = 5.338665722379601
            else:
                if input[2] <= 21.690000534057617:
                    if input[1] <= 60.869998931884766:
                        var7 = 6.028045714285714
                    else:
                        var7 = 5.395644808743167
                else:
                    if input[1] <= 57.545000076293945:
                        var7 = 6.667791208791209
                    else:
                        var7 = 6.079378619153675
    else:
        if input[1] <= 49.96500015258789:
            if input[2] <= 24.82200050354004:
                if input[1] <= 41.0049991607666:
                    if input[2] <= 22.770000457763672:
                        var7 = 8.01417318435754
                    else:
                        var7 = 8.596927325581396
                else:
                    if input[2] <= 23.166000366210938:
                        var7 = 7.303311728395063
                    else:
                        var7 = 7.906643776824036
            else:
                if input[1] <= 39.76499938964844:
                    if input[2] <= 26.26200008392334:
                        var7 = 9.20459243697479
                    else:
                        var7 = 9.710619047619048
                else:
                    if input[0] <= 36.010000228881836:
                        var7 = 8.305264705882351
                    else:
                        var7 = 8.938562499999994
        else:
            if input[2] <= 23.706000328063965:
                if input[2] <= 21.222000122070312:
                    if input[2] <= 18.449999809265137:
                        var7 = 5.480168000000003
                    else:
                        var7 = 6.140345724907065
                else:
                    if input[1] <= 61.02000045776367:
                        var7 = 6.928257575757576
                    else:
                        var7 = 6.327851851851853
            else:
                if input[0] <= 34.77000045776367:
                    if input[2] <= 25.289999961853027:
                        var7 = 6.882521052631576
                    else:
                        var7 = 7.334282258064515
                else:
                    if input[2] <= 26.17199993133545:
                        var7 = 7.686503067484663
                    else:
                        var7 = 8.232959999999999
    if input[0] <= 31.664999961853027:
        if input[2] <= 17.369999885559082:
            if input[1] <= 79.76499938964844:
                if input[2] <= 14.849999904632568:
                    if input[2] <= 12.509999752044678:
                        var8 = 3.502461538461539
                    else:
                        var8 = 4.120581730769232
                else:
                    if input[1] <= 75.83499908447266:
                        var8 = 4.817898514851484
                    else:
                        var8 = 4.3247291066282445
            else:
                if input[2] <= 13.230000019073486:
                    if input[2] <= 10.997999668121338:
                        var8 = 2.379576470588235
                    else:
                        var8 = 2.9767517482517483
                else:
                    if input[2] <= 15.894000053405762:
                        var8 = 3.4802440828402355
                    else:
                        var8 = 3.890233256351037
        else:
            if input[0] <= 29.005000114440918:
                if input[2] <= 20.682000160217285:
                    if input[1] <= 80.22000122070312:
                        var8 = 4.780244776119402
                    else:
                        var8 = 4.2810000000000015
                else:
                    if input[2] <= 22.661999702453613:
                        var8 = 5.0242823984526135
                    else:
                        var8 = 5.484201219512194
            else:
                if input[2] <= 20.97000026702881:
                    if input[1] <= 62.4950008392334:
                        var8 = 5.865178343949044
                    else:
                        var8 = 5.235376608187135
                else:
                    if input[1] <= 55.10000038146973:
                        var8 = 6.805093749999998
                    else:
                        var8 = 5.989938144329891
    else:
        if input[1] <= 47.114999771118164:
            if input[2] <= 24.173999786376953:
                if input[0] <= 35.94499969482422:
                    if input[2] <= 22.734000205993652:
                        var8 = 7.2694598540146
                    else:
                        var8 = 7.941000000000002
                else:
                    if input[2] <= 21.905999183654785:
                        var8 = 7.8920864197530864
                    else:
                        var8 = 8.472638888888888
            else:
                if input[0] <= 37.28499984741211:
                    if input[1] <= 37.06500053405762:
                        var8 = 9.166194594594598
                    else:
                        var8 = 8.550925816023746
                else:
                    if input[2] <= 25.649999618530273:
                        var8 = 9.171782258064518
                    else:
                        var8 = 9.662672131147538
        else:
            if input[2] <= 21.473999977111816:
                if input[2] <= 18.522000312805176:
                    if input[1] <= 58.72500038146973:
                        var8 = 5.899285714285715
                    else:
                        var8 = 5.16371794871795
                else:
                    if input[1] <= 54.364999771118164:
                        var8 = 6.626809999999999
                    else:
                        var8 = 6.083567346938775
            else:
                if input[0] <= 33.80999946594238:
                    if input[2] <= 23.904000282287598:
                        var8 = 6.598036363636368
                    else:
                        var8 = 7.031318584070794
                else:
                    if input[0] <= 36.36000061035156:
                        var8 = 7.440817097415512
                    else:
                        var8 = 8.417225806451611
    if input[0] <= 31.9350004196167:
        if input[2] <= 18.125999450683594:
            if input[1] <= 79.76499938964844:
                if input[2] <= 15.318000316619873:
                    if input[2] <= 12.401999950408936:
                        var9 = 3.458285714285715
                    else:
                        var9 = 4.1783725
                else:
                    if input[1] <= 74.93500137329102:
                        var9 = 4.90719103773585
                    else:
                        var9 = 4.482228865979383
            else:
                if input[2] <= 13.733999729156494:
                    if input[2] <= 11.214000225067139:
                        var9 = 2.431857142857142
                    else:
                        var9 = 3.1095524079320134
                else:
                    if input[2] <= 16.145999908447266:
                        var9 = 3.549231304347827
                    else:
                        var9 = 3.9778914473684153
        else:
            if input[0] <= 29.035000801086426:
                if input[2] <= 21.07800006866455:
                    if input[1] <= 78.42000198364258:
                        var9 = 4.919409610983983
                    else:
                        var9 = 4.441233370913189
                else:
                    if input[0] <= 27.199999809265137:
                        var9 = 4.961175257731963
                    else:
                        var9 = 5.366571942446042
            else:
                if input[2] <= 20.789999961853027:
                    if input[1] <= 61.85000038146973:
                        var9 = 5.896493333333333
                    else:
                        var9 = 5.280672440944882
                else:
                    if input[1] <= 60.39999961853027:
                        var9 = 6.5443423423423415
                    else:
                        var9 = 5.948817378497794
    else:
        if input[1] <= 46.71000099182129:
            if input[2] <= 24.10200023651123:
                if input[0] <= 36.989999771118164:
                    if input[1] <= 40.135000228881836:
                        var9 = 8.092062857142858
                    else:
                        var9 = 7.517415929203541
                else:
                    if input[2] <= 21.222000122070312:
                        var9 = 7.853342857142856
                    else:
                        var9 = 8.656045977011496
            else:
                if input[2] <= 25.506000518798828:
                    if input[1] <= 38.86000061035156:
                        var9 = 9.075473214285713
                    else:
                        var9 = 8.349585000000003
                else:
                    if input[0] <= 38.05999946594238:
                        var9 = 9.206181434599154
                    else:
                        var9 = 9.723711999999997
        else:
            if input[2] <= 22.842000007629395:
                if input[2] <= 20.609999656677246:
                    if input[1] <= 57.46000099182129:
                        var9 = 6.294534351145037
                    else:
                        var9 = 5.809369047619048
                else:
                    if input[1] <= 59.67500114440918:
                        var9 = 6.9348602150537575
                    else:
                        var9 = 6.2495942028985505
            else:
                if input[0] <= 35.41499900817871:
                    if input[1] <= 55.84499931335449:
                        var9 = 7.573140740740743
                    else:
                        var9 = 6.939935483870971
                else:
                    if input[0] <= 36.90500068664551:
                        var9 = 7.908420765027324
                    else:
                        var9 = 8.652649122807018
    return (var0 + var1 + var2 + var3 + var4 + var5 + var6 + var7 + var8 + var9) * 0.1
